<?xml version="1.0"?>
<opencv_storage>
<cascade>
  <stageType>BOOST</stageType>
  <featureType>HAAR</featureType>
  <height>41</height>
  <width>68</width>
  <stageParams>
    <boostType>GAB</boostType>
    <minHitRate>9.9500000476837158e-01</minHitRate>
    <maxFalseAlarm>5.0000000000000000e-01</maxFalseAlarm>
    <weightTrimRate>9.4999998807907104e-01</weightTrimRate>
    <maxDepth>1</maxDepth>
    <maxWeakCount>100</maxWeakCount></stageParams>
  <featureParams>
    <maxCatCount>0</maxCatCount>
    <featSize>1</featSize>
    <mode>BASIC</mode></featureParams>
  <stageNum>11</stageNum>
  <stages>
    <!-- stage 0 -->
    <_>
      <maxWeakCount>2</maxWeakCount>
      <stageThreshold>-1.8494044244289398e-01</stageThreshold>
      <weakClassifiers>
        <_>
          <internalNodes>
            0 -1 13 -9.8137378692626953e-02</internalNodes>
          <leafValues>
            9.5348834991455078e-01 -9.8013246059417725e-01</leafValues></_>
        <_>
          <internalNodes>
            0 -1 2 -4.4693980365991592e-02</internalNodes>
          <leafValues>
            7.9519200325012207e-01 -9.7959566116333008e-01</leafValues></_></weakClassifiers></_>
    <!-- stage 1 -->
    <_>
      <maxWeakCount>2</maxWeakCount>
      <stageThreshold>-3.3908113837242126e-01</stageThreshold>
      <weakClassifiers>
        <_>
          <internalNodes>
            0 -1 26 4.3002450838685036e-03</internalNodes>
          <leafValues>
            -9.8653197288513184e-01 7.9166668653488159e-01</leafValues></_>
        <_>
          <internalNodes>
            0 -1 6 -5.1687879022210836e-04</internalNodes>
          <leafValues>
            6.4745086431503296e-01 -9.9220585823059082e-01</leafValues></_></weakClassifiers></_>
    <!-- stage 2 -->
    <_>
      <maxWeakCount>2</maxWeakCount>
      <stageThreshold>-3.4109458327293396e-01</stageThreshold>
      <weakClassifiers>
        <_>
          <internalNodes>
            0 -1 24 4.0461510419845581e-02</internalNodes>
          <leafValues>
            -9.5424836874008179e-01 9.4871795177459717e-01</leafValues></_>
        <_>
          <internalNodes>
            0 -1 11 -3.6251237988471985e-01</internalNodes>
          <leafValues>
            6.1315375566482544e-01 -9.8602032661437988e-01</leafValues></_></weakClassifiers></_>
    <!-- stage 3 -->
    <_>
      <maxWeakCount>2</maxWeakCount>
      <stageThreshold>-4.0137195587158203e-01</stageThreshold>
      <weakClassifiers>
        <_>
          <internalNodes>
            0 -1 3 -7.9207539558410645e-02</internalNodes>
          <leafValues>
            8.3783781528472900e-01 -9.2857140302658081e-01</leafValues></_>
        <_>
          <internalNodes>
            0 -1 10 -9.9575400352478027e-02</internalNodes>
          <leafValues>
            5.2719944715499878e-01 -9.9225193262100220e-01</leafValues></_></weakClassifiers></_>
    <!-- stage 4 -->
    <_>
      <maxWeakCount>3</maxWeakCount>
      <stageThreshold>-1.4887255430221558e+00</stageThreshold>
      <weakClassifiers>
        <_>
          <internalNodes>
            0 -1 9 -5.4208114743232727e-02</internalNodes>
          <leafValues>
            5.3488373756408691e-01 -9.2052978277206421e-01</leafValues></_>
        <_>
          <internalNodes>
            0 -1 21 -2.1364074200391769e-02</internalNodes>
          <leafValues>
            3.4032279253005981e-01 -9.4512951374053955e-01</leafValues></_>
        <_>
          <internalNodes>
            0 -1 22 -4.5198157429695129e-02</internalNodes>
          <leafValues>
            5.3856790065765381e-01 -9.0851855278015137e-01</leafValues></_></weakClassifiers></_>
    <!-- stage 5 -->
    <_>
      <maxWeakCount>3</maxWeakCount>
      <stageThreshold>-1.3912800550460815e+00</stageThreshold>
      <weakClassifiers>
        <_>
          <internalNodes>
            0 -1 16 6.8904170766472816e-03</internalNodes>
          <leafValues>
            -9.1054314374923706e-01 9.3750000000000000e-01</leafValues></_>
        <_>
          <internalNodes>
            0 -1 20 -5.4762023501098156e-03</internalNodes>
          <leafValues>
            4.5523440837860107e-01 -9.4731503725051880e-01</leafValues></_>
        <_>
          <internalNodes>
            0 -1 17 -3.2693436369299889e-03</internalNodes>
          <leafValues>
            4.6657803654670715e-01 -1.</leafValues></_></weakClassifiers></_>
    <!-- stage 6 -->
    <_>
      <maxWeakCount>3</maxWeakCount>
      <stageThreshold>-1.1916469335556030e+00</stageThreshold>
      <weakClassifiers>
        <_>
          <internalNodes>
            0 -1 25 4.7281254082918167e-02</internalNodes>
          <leafValues>
            -9.2258065938949585e-01 8.8571429252624512e-01</leafValues></_>
        <_>
          <internalNodes>
            0 -1 7 -2.0153079181909561e-02</internalNodes>
          <leafValues>
            6.7388826608657837e-01 -8.5493320226669312e-01</leafValues></_>
        <_>
          <internalNodes>
            0 -1 0 -4.0664106607437134e-02</internalNodes>
          <leafValues>
            5.8586692810058594e-01 -8.4864425659179688e-01</leafValues></_></weakClassifiers></_>
    <!-- stage 7 -->
    <_>
      <maxWeakCount>3</maxWeakCount>
      <stageThreshold>-1.3179801702499390e+00</stageThreshold>
      <weakClassifiers>
        <_>
          <internalNodes>
            0 -1 19 -6.3123151659965515e-02</internalNodes>
          <leafValues>
            7.6470589637756348e-01 -9.0353697538375854e-01</leafValues></_>
        <_>
          <internalNodes>
            0 -1 1 -3.5830356180667877e-02</internalNodes>
          <leafValues>
            5.3883194923400879e-01 -8.7460148334503174e-01</leafValues></_>
        <_>
          <internalNodes>
            0 -1 23 4.8780357465147972e-03</internalNodes>
          <leafValues>
            -9.5327508449554443e-01 6.1146366596221924e-01</leafValues></_></weakClassifiers></_>
    <!-- stage 8 -->
    <_>
      <maxWeakCount>3</maxWeakCount>
      <stageThreshold>-1.1180030107498169e+00</stageThreshold>
      <weakClassifiers>
        <_>
          <internalNodes>
            0 -1 18 -1.2151137925684452e-02</internalNodes>
          <leafValues>
            7.2222220897674561e-01 -9.0938508510589600e-01</leafValues></_>
        <_>
          <internalNodes>
            0 -1 15 -3.0673757195472717e-02</internalNodes>
          <leafValues>
            7.7906394004821777e-01 -7.9630017280578613e-01</leafValues></_>
        <_>
          <internalNodes>
            0 -1 8 -8.7235607206821442e-03</internalNodes>
          <leafValues>
            5.8768224716186523e-01 -1.</leafValues></_></weakClassifiers></_>
    <!-- stage 9 -->
    <_>
      <maxWeakCount>2</maxWeakCount>
      <stageThreshold>-2.6917347311973572e-01</stageThreshold>
      <weakClassifiers>
        <_>
          <internalNodes>
            0 -1 12 -1.0497353971004486e-01</internalNodes>
          <leafValues>
            1. -8.8087773323059082e-01</leafValues></_>
        <_>
          <internalNodes>
            0 -1 14 1.5969391167163849e-01</internalNodes>
          <leafValues>
            -9.9339723587036133e-01 6.1170428991317749e-01</leafValues></_></weakClassifiers></_>
    <!-- stage 10 -->
    <_>
      <maxWeakCount>2</maxWeakCount>
      <stageThreshold>1.3071898370981216e-02</stageThreshold>
      <weakClassifiers>
        <_>
          <internalNodes>
            0 -1 4 -2.3274553939700127e-02</internalNodes>
          <leafValues>
            1. -9.8675495386123657e-01</leafValues></_>
        <_>
          <internalNodes>
            0 -1 5 1.9123088568449020e-02</internalNodes>
          <leafValues>
            1. -9.8692810535430908e-01</leafValues></_></weakClassifiers></_></stages>
  <features>
    <_>
      <rects>
        <_>
          0 1 45 6 -1.</_>
        <_>
          0 4 45 3 2.</_></rects>
      <tilted>0</tilted></_>
    <_>
      <rects>
        <_>
          0 2 8 32 -1.</_>
        <_>
          4 2 4 32 2.</_></rects>
      <tilted>0</tilted></_>
    <_>
      <rects>
        <_>
          0 4 10 34 -1.</_>
        <_>
          5 4 5 34 2.</_></rects>
      <tilted>0</tilted></_>
    <_>
      <rects>
        <_>
          0 5 36 19 -1.</_>
        <_>
          12 5 12 19 3.</_></rects>
      <tilted>0</tilted></_>
    <_>
      <rects>
        <_>
          0 20 30 19 -1.</_>
        <_>
          10 20 10 19 3.</_></rects>
      <tilted>0</tilted></_>
    <_>
      <rects>
        <_>
          0 27 66 6 -1.</_>
        <_>
          33 27 33 6 2.</_></rects>
      <tilted>0</tilted></_>
    <_>
      <rects>
        <_>
          0 38 6 3 -1.</_>
        <_>
          3 38 3 3 2.</_></rects>
      <tilted>0</tilted></_>
    <_>
      <rects>
        <_>
          1 3 24 5 -1.</_>
        <_>
          9 3 8 5 3.</_></rects>
      <tilted>0</tilted></_>
    <_>
      <rects>
        <_>
          1 5 13 30 -1.</_>
        <_>
          1 15 13 10 3.</_></rects>
      <tilted>0</tilted></_>
    <_>
      <rects>
        <_>
          1 6 36 10 -1.</_>
        <_>
          13 6 12 10 3.</_></rects>
      <tilted>0</tilted></_>
    <_>
      <rects>
        <_>
          1 20 66 20 -1.</_>
        <_>
          23 20 22 20 3.</_></rects>
      <tilted>0</tilted></_>
    <_>
      <rects>
        <_>
          4 1 64 38 -1.</_>
        <_>
          4 20 64 19 2.</_></rects>
      <tilted>0</tilted></_>
    <_>
      <rects>
        <_>
          8 0 44 12 -1.</_>
        <_>
          8 4 44 4 3.</_></rects>
      <tilted>0</tilted></_>
    <_>
      <rects>
        <_>
          8 0 53 10 -1.</_>
        <_>
          8 5 53 5 2.</_></rects>
      <tilted>0</tilted></_>
    <_>
      <rects>
        <_>
          10 6 58 34 -1.</_>
        <_>
          39 6 29 34 2.</_></rects>
      <tilted>0</tilted></_>
    <_>
      <rects>
        <_>
          17 3 17 12 -1.</_>
        <_>
          17 7 17 4 3.</_></rects>
      <tilted>0</tilted></_>
    <_>
      <rects>
        <_>
          19 9 26 4 -1.</_>
        <_>
          19 11 26 2 2.</_></rects>
      <tilted>0</tilted></_>
    <_>
      <rects>
        <_>
          26 23 12 12 -1.</_>
        <_>
          26 29 12 6 2.</_></rects>
      <tilted>0</tilted></_>
    <_>
      <rects>
        <_>
          30 11 14 8 -1.</_>
        <_>
          30 15 14 4 2.</_></rects>
      <tilted>0</tilted></_>
    <_>
      <rects>
        <_>
          35 11 33 12 -1.</_>
        <_>
          46 11 11 12 3.</_></rects>
      <tilted>0</tilted></_>
    <_>
      <rects>
        <_>
          42 0 24 4 -1.</_>
        <_>
          50 0 8 4 3.</_></rects>
      <tilted>0</tilted></_>
    <_>
      <rects>
        <_>
          44 0 24 14 -1.</_>
        <_>
          52 0 8 14 3.</_></rects>
      <tilted>0</tilted></_>
    <_>
      <rects>
        <_>
          49 3 19 18 -1.</_>
        <_>
          49 12 19 9 2.</_></rects>
      <tilted>0</tilted></_>
    <_>
      <rects>
        <_>
          54 35 14 4 -1.</_>
        <_>
          61 35 7 4 2.</_></rects>
      <tilted>0</tilted></_>
    <_>
      <rects>
        <_>
          55 4 12 31 -1.</_>
        <_>
          61 4 6 31 2.</_></rects>
      <tilted>0</tilted></_>
    <_>
      <rects>
        <_>
          56 8 12 23 -1.</_>
        <_>
          62 8 6 23 2.</_></rects>
      <tilted>0</tilted></_>
    <_>
      <rects>
        <_>
          58 31 10 6 -1.</_>
        <_>
          63 31 5 6 2.</_></rects>
      <tilted>0</tilted></_></features></cascade>
</opencv_storage>
